const modelWeights = {
  "60X60": {
    "layer1": {
      "weights": [
        [
          [
            -0.3334924280643463,
            0.17890088260173798,
            -0.15819571912288666,
            0.013036754913628101,
            0.08996903151273727,
            0.03900531679391861
          ],
          [
            -0.0016550973523408175,
            -0.00024078544811345637,
            -0.0008195402333512902,
            -0.0009953638073056936,
            -2.972727088490501e-05,
            -0.0016553786117583513
          ],
          [
            0.465501070022583,
            0.2894858419895172,
            -0.11627495288848877,
            -0.5881198644638062,
            0.1865452378988266,
            0.6194570660591125
          ],
          [
            -0.1387774497270584,
            -0.10584850609302521,
            0.47108736634254456,
            0.20367462933063507,
            -0.31992635130882263,
            -0.11564477533102036
          ],
          [
            -0.043721169233322144,
            0.2703375518321991,
            -0.0818929672241211,
            0.04812854155898094,
            -0.9871282577514648,
            -0.11903147399425507
          ],
          [
            0.1427203118801117,
            -0.32318416237831116,
            0.18322446942329407,
            -0.019937964156270027,
            0.46466064453125,
            0.28243717551231384
          ],
          [
            0.03448795527219772,
            0.01372044999152422,
            0.5001725554466248,
            -0.1763666868209839,
            0.02153182215988636,
            0.3270232677459717
          ],
          [
            -1.0192748867154933e-09,
            -7.52574447204779e-09,
            -2.5563345218415634e-08,
            -5.00845631634661e-09,
            -4.040410516467467e-14,
            -4.2931117150146747e-07
          ],
          [
            0.1402544230222702,
            0.021062446758151054,
            0.18189826607704163,
            -0.07696913182735443,
            -0.572495698928833,
            -0.005332940258085728
          ],
          [
            -0.6896023750305176,
            -0.41715365648269653,
            0.36728692054748535,
            0.030044229701161385,
            -0.2831780016422272,
            0.1815508008003235
          ],
          [
            -0.006333434488624334,
            0.20306073129177094,
            -0.34837135672569275,
            0.0190577395260334,
            0.05397411435842514,
            0.016396956518292427
          ],
          [
            0.22044618427753448,
            0.09366479516029358,
            -0.2226744443178177,
            -0.01809445209801197,
            -0.11866137385368347,
            -0.3202170431613922
          ],
          [
            -5.2074779997778616e-37,
            3.0450215629778275e-41,
            -4.710004489308311e-37,
            -1.055414159054685e-34,
            -4.9318559322065504e-40,
            -5.0600397533970795e-30
          ],
          [
            0.03975021094083786,
            0.05313245952129364,
            -0.6407654881477356,
            -0.0247376449406147,
            -0.3417736291885376,
            0.3917708396911621
          ],
          [
            0.26436954736709595,
            0.12151004374027252,
            -0.2722316086292267,
            0.04500199109315872,
            0.285762757062912,
            0.21751220524311066
          ],
          [
            -0.3236844539642334,
            -0.08657888323068619,
            -0.19536741077899933,
            0.07624728232622147,
            0.246641144156456,
            0.16803650557994843
          ],
          [
            -0.0905744731426239,
            -0.1376262754201889,
            -0.2571869194507599,
            0.09185665100812912,
            0.2666373550891876,
            -0.17011292278766632
          ],
          [
            -0.24812042713165283,
            0.3807991147041321,
            -0.48210859298706055,
            0.01038195937871933,
            -0.059138718992471695,
            -0.13351279497146606
          ],
          [
            -2.1078767203919213e-11,
            -2.778536567493717e-10,
            -8.120735334182783e-11,
            -2.184365577306835e-09,
            7.851348499633899e-16,
            -4.896756333749863e-09
          ],
          [
            0.2888478934764862,
            0.2651256024837494,
            -0.02172893099486828,
            0.3354663550853729,
            -0.1837494969367981,
            0.3979525566101074
          ],
          [
            -4.944215384661895e-40,
            -4.940642073577867e-40,
            -4.975015924907755e-40,
            -4.982050443198665e-40,
            -4.907361235050153e-40,
            -4.933985905872324e-40
          ],
          [
            0.1976812779903412,
            -0.1461848020553589,
            -0.006219327915459871,
            0.10124056786298752,
            0.049177300184965134,
            -0.04928981140255928
          ],
          [
            0.006047832779586315,
            0.0023862910456955433,
            -0.001061537186615169,
            -0.0008347069378942251,
            0.004544725175946951,
            0.0003425869217608124
          ],
          [
            -0.08958026021718979,
            0.2505004405975342,
            0.5772400498390198,
            -0.1363460123538971,
            0.3387102484703064,
            0.5101179480552673
          ],
          [
            0.15043196082115173,
            0.23932300508022308,
            -0.021561749279499054,
            0.010504497215151787,
            0.019245607778429985,
            -0.199771448969841
          ],
          [
            -0.2377566248178482,
            -0.2998787462711334,
            -0.1078735813498497,
            -0.042438067495822906,
            0.02185271680355072,
            0.25103986263275146
          ],
          [
            -0.033506620675325394,
            -0.03228940814733505,
            0.2905530631542206,
            0.010970563627779484,
            -0.03625797852873802,
            -0.684833824634552
          ],
          [
            -0.10622777789831161,
            0.04995514079928398,
            0.4490550458431244,
            -0.13685324788093567,
            -0.3396548628807068,
            0.3769543766975403
          ],
          [
            -4.917492622947221e-40,
            5.759124556723752e-19,
            -9.017605736570375e-30,
            1.861779792929603e-21,
            -9.458453433829558e-35,
            -2.03419555695058e-26
          ],
          [
            0.003039818722754717,
            0.376019150018692,
            0.6510233283042908,
            -0.10452540218830109,
            0.3605356514453888,
            -0.4998566508293152
          ],
          [
            -0.22020012140274048,
            0.5461603403091431,
            -0.3324197232723236,
            -0.20832408964633942,
            -0.10080420225858688,
            0.43007633090019226
          ],
          [
            -0.0197855643928051,
            -0.016688456758856773,
            -0.01526579912751913,
            -0.01711321249604225,
            -0.011804511770606041,
            -0.015352711081504822
          ],
          [
            0.054453276097774506,
            -0.21204783022403717,
            0.546194314956665,
            0.20804642140865326,
            -0.18562383949756622,
            0.09055499732494354
          ],
          [
            0.15996010601520538,
            -0.011927752755582333,
            -0.01501952949911356,
            -0.25330761075019836,
            -0.028940174728631973,
            0.5938562154769897
          ],
          [
            0.30887728929519653,
            -0.19771941006183624,
            -0.3225857615470886,
            -0.18470294773578644,
            0.16664738953113556,
            0.4897793233394623
          ],
          [
            -0.046660520136356354,
            -0.4897955358028412,
            -0.04131101071834564,
            -0.2501057982444763,
            -0.039019759744405746,
            0.38252535462379456
          ],
          [
            -5.416454951046035e-05,
            -2.1345009372453205e-05,
            -7.341618766076863e-05,
            -0.0004667944449465722,
            -3.0966155463829637e-05,
            -0.00023229466751217842
          ],
          [
            0.44109398126602173,
            -0.003919751849025488,
            -0.21890422701835632,
            -0.23811504244804382,
            -0.4474075436592102,
            0.5639100670814514
          ],
          [
            0.2613452076911926,
            0.0298346895724535,
            0.2976476848125458,
            0.007191832643002272,
            -0.5515870451927185,
            0.03274237737059593
          ],
          [
            0.12910915911197662,
            -0.09594286233186722,
            0.3947983682155609,
            0.10225159674882889,
            -0.46697166562080383,
            -0.5175279974937439
          ],
          [
            -5.00166639664711e-30,
            -1.0332868929058003e-24,
            -2.3032054440308244e-32,
            -1.3145779576875124e-27,
            -4.941314696840743e-40,
            4.4087544700738575e-34
          ],
          [
            -0.17616723477840424,
            -0.16797742247581482,
            -0.04675392806529999,
            -0.24335306882858276,
            0.014841534197330475,
            0.19323264062404633
          ],
          [
            -0.046226538717746735,
            0.29754698276519775,
            0.0555192306637764,
            0.15260422229766846,
            -0.2909630835056305,
            0.48696377873420715
          ],
          [
            -5.545498542719031e-40,
            4.961381290849874e-40,
            -5.639847968322021e-40,
            -6.2226479996347124e-40,
            -5.0079184128501015e-40,
            -4.986590650223078e-40
          ],
          [
            -4.505519513031686e-08,
            -5.377464873390636e-08,
            -1.3074413800495677e-05,
            -1.232000704476377e-05,
            1.62811784321093e-06,
            7.744554750388488e-05
          ],
          [
            0.23034648597240448,
            0.025300893932580948,
            -0.12939877808094025,
            -0.07872401177883148,
            -0.23862408101558685,
            -0.2534183859825134
          ],
          [
            -1.4382878568697244e-11,
            -2.55131055171276e-10,
            -4.037632173048422e-10,
            -2.581641211918395e-08,
            -2.2895724080757365e-14,
            -2.0149405699498857e-08
          ],
          [
            -0.32733631134033203,
            -0.09832984209060669,
            0.6214884519577026,
            0.46579018235206604,
            -0.08545935899019241,
            -0.6023421883583069
          ],
          [
            -3.486578862066381e-05,
            -7.42194652048056e-06,
            -3.342526179039851e-05,
            -8.496120426570997e-05,
            -4.452579105418408e-06,
            -0.00019237947708461434
          ],
          [
            0.313709020614624,
            0.1762237250804901,
            0.3145289421081543,
            0.2076895385980606,
            -0.06256332993507385,
            -0.33723747730255127
          ],
          [
            -0.24476997554302216,
            -0.0014554951339960098,
            0.1217791810631752,
            -0.20705510675907135,
            -0.07191899418830872,
            0.07072439044713974
          ],
          [
            -1.635402091526572e-10,
            -2.0488712115795948e-10,
            -4.0444682325446735e-11,
            -1.369906188486425e-09,
            -5.91217214074291e-11,
            -5.278727677193729e-09
          ],
          [
            -8.1689643014688765e-25,
            1.1861642290109613e-26,
            -7.105047320119928e-25,
            -6.436158353517191e-25,
            -1.4683723769506158e-25,
            -1.7412132330490783e-24
          ],
          [
            0.10942613333463669,
            0.0928429514169693,
            -0.22438614070415497,
            0.2525128126144409,
            0.07954676449298859,
            -0.183217853307724
          ],
          [
            0.1343148797750473,
            -0.011489425785839558,
            0.32956790924072266,
            0.03137096017599106,
            0.028849489986896515,
            -0.30229678750038147
          ],
          [
            -0.2425994724035263,
            0.20011350512504578,
            -0.13026635348796844,
            -0.010599699802696705,
            0.0314435176551342,
            -0.02579820528626442
          ],
          [
            -0.2305668592453003,
            -0.10514575242996216,
            -0.07610983401536942,
            0.03826696053147316,
            0.27096810936927795,
            -0.08573152124881744
          ],
          [
            0.03134382143616676,
            -0.026799319311976433,
            -0.1606544554233551,
            -0.09761503338813782,
            -0.026730479672551155,
            0.6552322506904602
          ],
          [
            -0.04857683181762695,
            -0.029862472787499428,
            -0.02690323255956173,
            -0.03388489410281181,
            -0.027237316593527794,
            -0.012213210575282574
          ],
          [
            -0.000542076479177922,
            -0.00038616947131231427,
            -0.0018833844223991036,
            -0.0017434324836358428,
            0.001545242383144796,
            -0.003098625224083662
          ],
          [
            -0.07584130764007568,
            0.49078914523124695,
            -0.09302649646997452,
            0.06909418106079102,
            0.22118164598941803,
            -0.28950148820877075
          ],
          [
            0.047116633504629135,
            -0.3109242022037506,
            0.5388789176940918,
            -0.30497944355010986,
            0.011607742868363857,
            -0.22684495151042938
          ],
          [
            0.049980007112026215,
            -0.3245522379875183,
            0.4228890538215637,
            0.05719465762376785,
            -0.16752596199512482,
            0.30819353461265564
          ],
          [
            -1.6199991156519913e-40,
            -5.152198165980529e-20,
            -7.169383774054982e-31,
            -2.4763603467981017e-22,
            -1.2575856702543351e-28,
            -5.899730472776574e-27
          ],
          [
            -0.01670534536242485,
            -0.04842450097203255,
            0.1985735297203064,
            0.09409922361373901,
            -0.2188272327184677,
            0.10372386127710342
          ],
          [
            -0.0010181940160691738,
            0.05965190380811691,
            -0.5918980836868286,
            0.16212205588817596,
            -0.26534196734428406,
            0.5577316284179688
          ],
          [
            -0.050303250551223755,
            0.08340688049793243,
            0.31844839453697205,
            0.18614980578422546,
            0.11348851770162582,
            -0.3295099437236786
          ],
          [
            -0.17732028663158417,
            0.3299334943294525,
            -0.10879603773355484,
            0.3238803744316101,
            -0.2163885533809662,
            -0.2439883053302765
          ],
          [
            -2.3220648870392324e-07,
            -1.6617980236333096e-07,
            -9.759138208664808e-08,
            -2.7072369448433165e-06,
            -2.972158907876832e-10,
            -1.8639873360370984e-06
          ],
          [
            -5.035930369151955e-40,
            5.1068500844314336e-40,
            -6.038587446345648e-40,
            -4.9701954581904774e-40,
            -5.440204976109664e-40,
            -5.6193749977582354e-40
          ],
          [
            0.13657598197460175,
            0.2197788953781128,
            0.41027888655662537,
            -0.04984595626592636,
            -0.6895671486854553,
            -0.3871351480484009
          ],
          [
            0.022502629086375237,
            0.3912285268306732,
            -0.30316445231437683,
            -0.18362097442150116,
            0.08185015618801117,
            0.634165346622467
          ],
          [
            -7.141177775338292e-06,
            -1.8202743376605213e-05,
            -3.2887414818105754e-06,
            -1.7459524315199815e-05,
            -4.836623324067091e-10,
            -7.248889687616611e-06
          ],
          [
            0.15304230153560638,
            -0.12453465163707733,
            -0.10098734498023987,
            0.004614218138158321,
            0.06222415715456009,
            -0.0868184044957161
          ],
          [
            -0.097317636013031,
            -0.049525294452905655,
            0.15341749787330627,
            0.13862691819667816,
            -0.3534296154975891,
            0.07188837975263596
          ],
          [
            -0.06883682310581207,
            0.01325725857168436,
            0.10602549463510513,
            0.1671101450920105,
            0.04763103649020195,
            -0.13082782924175262
          ],
          [
            0.22345280647277832,
            -0.3255614936351776,
            0.4503527879714966,
            0.1892573982477188,
            0.129344642162323,
            -0.19919024407863617
          ],
          [
            4.9105842215181e-40,
            4.962502329621334e-40,
            -4.925970478656386e-40,
            -4.911396974627408e-40,
            -5.785540969657872e-40,
            4.928352686045738e-40
          ],
          [
            -0.19197028875350952,
            0.44410577416419983,
            0.09279906749725342,
            0.005069212522357702,
            0.38797545433044434,
            0.4381208121776581
          ],
          [
            -0.2905595600605011,
            -0.1385255604982376,
            0.412819504737854,
            0.14952166378498077,
            -0.130280539393425,
            0.07332009077072144
          ],
          [
            0.26518845558166504,
            -0.17525918781757355,
            -0.12307165563106537,
            0.022880299016833305,
            0.10871297866106033,
            -0.18415169417858124
          ],
          [
            -0.18518762290477753,
            0.032334692776203156,
            -0.027653459459543228,
            0.10098857432603836,
            0.19355955719947815,
            -0.38204607367515564
          ],
          [
            -0.2079121470451355,
            -0.242280974984169,
            0.18596261739730835,
            0.22796578705310822,
            -0.16818523406982422,
            -0.08824561536312103
          ],
          [
            -0.3609641492366791,
            -0.25417542457580566,
            0.4352955222129822,
            0.12744121253490448,
            0.16722877323627472,
            0.35100600123405457
          ],
          [
            -0.0032065543346107006,
            0.6170207262039185,
            -0.7970301508903503,
            0.3118792176246643,
            0.26871782541275024,
            0.402904212474823
          ],
          [
            0.4532105028629303,
            0.05643865838646889,
            0.18025723099708557,
            0.49049702286720276,
            0.19436001777648926,
            -0.7233670949935913
          ],
          [
            0.2706795334815979,
            0.5776978731155396,
            0.5274530649185181,
            -0.3678439259529114,
            0.5469750165939331,
            0.10694189369678497
          ],
          [
            0.4642772674560547,
            -0.13031844794750214,
            0.003097499953582883,
            0.050689131021499634,
            0.15230505168437958,
            -0.339598149061203
          ],
          [
            -2.8467481635628457e-34,
            -1.3916320608893748e-34,
            -1.6232679292880846e-34,
            -2.3920648823661213e-34,
            -1.3995842112960654e-34,
            -2.0450720365615846e-34
          ],
          [
            -0.29295846819877625,
            0.3474707305431366,
            0.16144253313541412,
            0.07720199972391129,
            0.07732643187046051,
            0.3736099600791931
          ],
          [
            0.027073819190263748,
            0.02648017928004265,
            -0.033179253339767456,
            -0.00047467215335927904,
            0.12262360751628876,
            -0.08466598391532898
          ],
          [
            2.638620877348785e-09,
            -1.1110055453400491e-07,
            -1.5285559129551984e-07,
            -4.830206989936414e-07,
            -1.1319448844915314e-07,
            -5.192657681618584e-07
          ],
          [
            0.0950172021985054,
            0.08980467915534973,
            0.2926397919654846,
            0.26045024394989014,
            -0.01620543748140335,
            0.2743408977985382
          ],
          [
            0.02771953120827675,
            -0.3682290017604828,
            0.30991628766059875,
            -0.07361304759979248,
            0.02117985300719738,
            0.2616821229457855
          ],
          [
            0.0930066779255867,
            -0.2541130483150482,
            0.002692289650440216,
            -0.08211569488048553,
            0.005612244363874197,
            0.1153535321354866
          ],
          [
            -0.2335631251335144,
            0.19952186942100525,
            -0.15989983081817627,
            -0.12583628296852112,
            0.1679898500442505,
            0.21663892269134521
          ],
          [
            0.3099454641342163,
            -0.0770878866314888,
            -0.15002772212028503,
            0.27948644757270813,
            0.10924825072288513,
            0.10243912041187286
          ],
          [
            0.15996691584587097,
            -0.03341371566057205,
            -0.07296974956989288,
            0.0310367438942194,
            0.0007050104322843254,
            -0.145851731300354
          ],
          [
            -3.1627810130885337e-06,
            -4.525903207763804e-08,
            -3.6849403528549374e-08,
            -8.711570444575045e-06,
            -4.747834612441049e-13,
            -3.4135436521864904e-07
          ],
          [
            0.4032438397407532,
            -0.05730118602514267,
            -0.4149608612060547,
            -0.0029052013996988535,
            -0.015683019533753395,
            0.06583190709352493
          ],
          [
            -0.06243173032999039,
            0.06089717894792557,
            0.7209842205047607,
            0.10984162986278534,
            0.13171914219856262,
            -0.6044086813926697
          ],
          [
            0.4245205223560333,
            -0.2512880861759186,
            -0.511839747428894,
            0.08253904432058334,
            -0.2703045904636383,
            -0.07289902120828629
          ],
          [
            2.108369685435707e-12,
            -1.2868277624034086e-11,
            -6.059843924398345e-13,
            -3.817236110537081e-11,
            -5.745552913940715e-21,
            -1.720786057049506e-13
          ],
          [
            -0.2953336238861084,
            -0.04164008051156998,
            0.4283812940120697,
            -0.2299078106880188,
            -0.10392383486032486,
            -0.11683890223503113
          ],
          [
            -0.27418893575668335,
            -0.08497732132673264,
            0.36845308542251587,
            -0.03743566572666168,
            0.04788592457771301,
            0.03971613943576813
          ],
          [
            0.037950240075588226,
            0.05292414128780365,
            0.22621697187423706,
            0.08837493509054184,
            0.13490836322307587,
            -0.10319667309522629
          ],
          [
            -1.4567691323463805e-05,
            -2.4034025045693852e-05,
            -1.60385861818213e-05,
            -2.8765776733052917e-05,
            -7.702509719820227e-06,
            -7.109759280865546e-06
          ],
          [
            0.3519425094127655,
            0.3693128228187561,
            0.2969400882720947,
            -0.20308683812618256,
            0.22965265810489655,
            0.2463337481021881
          ],
          [
            0.3901200592517853,
            -0.238181471824646,
            0.015742789953947067,
            0.13592393696308136,
            0.2117980718612671,
            0.230838343501091
          ],
          [
            -0.08450291305780411,
            0.16365106403827667,
            -0.11964607983827591,
            -0.1039373129606247,
            -0.0076882001012563705,
            0.29262229800224304
          ],
          [
            0.1047476977109909,
            0.1670648157596588,
            0.4105336368083954,
            -0.06741415709257126,
            0.4080447256565094,
            -0.17384782433509827
          ],
          [
            -6.004872205293993e-40,
            -4.962390225744188e-40,
            -1.3600582505197377e-40,
            -5.016059956927829e-40,
            -4.9926162336196745e-40,
            -2.1337151326734692e-40
          ],
          [
            -0.0005246990476734936,
            -0.3470219671726227,
            -0.17322677373886108,
            0.16167651116847992,
            0.13407815992832184,
            0.019906969740986824
          ],
          [
            -1.0720256904406256e-09,
            -2.313665578568269e-11,
            -5.9835261745355695e-12,
            -6.835176868946746e-10,
            -4.3491412911306933e-17,
            -1.9072111945295234e-10
          ],
          [
            0.24221496284008026,
            0.24378842115402222,
            0.17105966806411743,
            -0.061341576278209686,
            0.24928684532642365,
            -0.19152654707431793
          ],
          [
            0.18571984767913818,
            -0.38108643889427185,
            -0.19576945900917053,
            0.07109306007623672,
            -0.23479394614696503,
            0.011645822785794735
          ],
          [
            0.20981959998607635,
            -0.038419075310230255,
            0.5389542579650879,
            -0.014709359966218472,
            -0.36729443073272705,
            -0.3801344931125641
          ],
          [
            0.523057222366333,
            -0.15176278352737427,
            -0.5869216322898865,
            0.043765950947999954,
            -0.20139405131340027,
            0.5684853196144104
          ],
          [
            -0.005596217233687639,
            -0.09616608172655106,
            0.0468464121222496,
            0.3952503204345703,
            0.43205568194389343,
            -0.021261706948280334
          ],
          [
            -0.21642690896987915,
            0.1134602352976799,
            0.18527446687221527,
            -0.0689810961484909,
            0.1242198497056961,
            0.14400656521320343
          ],
          [
            0.11319798231124878,
            0.112002894282341,
            -0.06274645030498505,
            0.03007083758711815,
            -0.6794021129608154,
            -0.03931222856044769
          ],
          [
            0.4606248140335083,
            -0.29229339957237244,
            -0.3099321126937866,
            0.024641886353492737,
            0.15659289062023163,
            -0.3056631088256836
          ],
          [
            -3.0652031248544595e-16,
            -1.6855096420138882e-13,
            -1.5085762500310906e-12,
            -5.5540533110132184e-12,
            -3.071926597104056e-14,
            -3.235593348804855e-09
          ],
          [
            -0.21179494261741638,
            0.39197731018066406,
            -0.5350539684295654,
            0.15073564648628235,
            -0.26710212230682373,
            0.30587533116340637
          ],
          [
            -0.56484454870224,
            0.0012768839951604605,
            0.1264290064573288,
            0.5540711283683777,
            -0.2180406004190445,
            -0.5603489279747009
          ],
          [
            0.48626455664634705,
            0.2278209924697876,
            -0.8517100214958191,
            0.0066624972969293594,
            -0.14341488480567932,
            0.4720531404018402
          ],
          [
            -4.9067867026797795e-40,
            -4.92969793257149e-40,
            4.91986081735193e-40,
            -2.5218362919151208e-29,
            -4.919706674520854e-40,
            -3.090060706684531e-29
          ],
          [
            -0.14762449264526367,
            0.2787800133228302,
            0.2123047113418579,
            0.0316968634724617,
            -0.0077036344446241856,
            -0.2959287762641907
          ]
        ],
        [
          0.06155127286911011,
          -0.006285170093178749,
          -0.0342802032828331,
          0.0017729275859892368,
          0.41380640864372253,
          -0.012932606972754002,
          -0.11136692762374878,
          -4.083968451595865e-05,
          -0.03506914898753166,
          0.3361957371234894,
          0.09417317807674408,
          0.07119099795818329,
          -3.6820188697921454e-16,
          0.29712265729904175,
          -0.14294004440307617,
          0.038070280104875565,
          0.21823689341545105,
          0.2791629731655121,
          -3.0058058655413333e-06,
          -0.30194833874702454,
          4.941707060410754e-40,
          0.00026286180946044624,
          -0.012775865383446217,
          -0.306153804063797,
          -0.1326899528503418,
          0.14530910551548004,
          0.45629745721817017,
          -0.12260770797729492,
          -3.202029299261694e-13,
          -0.08146631717681885,
          0.09781961888074875,
          -0.03228268027305603,
          -0.09391368925571442,
          -0.2037583291530609,
          -0.049146611243486404,
          0.05961593613028526,
          -0.002537048188969493,
          -0.09614165872335434,
          -0.12359654158353806,
          0.3438528776168823,
          -4.2473759020522986e-14,
          0.11498592048883438,
          -0.19245031476020813,
          -4.953576058403585e-40,
          -6.841171125415713e-05,
          0.14354094862937927,
          -5.526850145542994e-06,
          0.10330693423748016,
          -0.0014233689289540052,
          -0.22614173591136932,
          0.14834335446357727,
          -4.457683644432109e-06,
          -5.3533008218338865e-25,
          -0.012660973705351353,
          0.009374809451401234,
          0.022628625854849815,
          0.054267849773168564,
          -0.2471146136522293,
          -0.036053672432899475,
          -0.0053371647372841835,
          -0.11676131188869476,
          0.22185911238193512,
          -0.07094920426607132,
          -1.5455251824430388e-13,
          -0.04625416919589043,
          -0.047103602439165115,
          -0.060009390115737915,
          0.15974463522434235,
          -0.00014215930423233658,
          -4.936592321015968e-40,
          0.04720362648367882,
          -0.2503834068775177,
          -0.0006697474746033549,
          0.013424955308437347,
          0.018796179443597794,
          -0.057320043444633484,
          -0.021453535184264183,
          -6.129587768618901e-40,
          -0.29019197821617126,
          0.019008111208677292,
          0.01795383356511593,
          0.2799452245235443,
          0.10919735580682755,
          -0.03337010368704796,
          -0.12813420593738556,
          -0.0627429336309433,
          -0.30281350016593933,
          0.055825743824243546,
          -2.6218083655721256e-34,
          -0.22314785420894623,
          -0.051067519932985306,
          -4.7742602760081354e-08,
          -0.3199518918991089,
          -0.03898910805583,
          0.0485086515545845,
          0.010732229799032211,
          -0.18792027235031128,
          -0.007289940491318703,
          -0.00016832568508107215,
          0.11328327655792236,
          0.03141019493341446,
          0.3911748230457306,
          -1.124452566614309e-07,
          0.19053444266319275,
          0.03055991791188717,
          -0.14667288959026337,
          1.4587364603357855e-05,
          -0.31378746032714844,
          -0.15901145339012146,
          -0.05877317115664482,
          -0.16990476846694946,
          -4.9192722719969136e-40,
          0.06184526905417442,
          -2.3344639430433745e-06,
          -0.01021087821573019,
          0.3224409818649292,
          0.06501125544309616,
          -0.01745748147368431,
          -0.09498941898345947,
          -0.08578064292669296,
          0.16408245265483856,
          0.09041325002908707,
          -2.104815735037846e-07,
          0.1246718242764473,
          0.6327580809593201,
          0.05471403896808624,
          -2.212457337417623e-17,
          0.04985278844833374
        ]
      ]
    },
    "layer2": {
      "weights": [
        [
          [
            -0.06456587463617325,
            1.9751189029193483e-05,
            0.09548328816890717,
            0.01629185862839222,
            -0.2189534306526184,
            0.060101885348558426,
            0.07952319830656052,
            3.1928002315563184e-14,
            -0.15678013861179352,
            -0.04471728950738907,
            -0.013087710365653038,
            -0.06951045244932175,
            4.9099536372091535e-40,
            -0.20862171053886414,
            0.01151074655354023,
            -0.08942168951034546,
            -0.09236908704042435,
            -0.13105393946170807,
            3.1449570093740565e-26,
            0.029663320630788803,
            -4.966636160091092e-40,
            0.037124767899513245,
            -1.1705669749062508e-06,
            0.08554760366678238,
            -0.032254964113235474,
            -0.044396307319402695,
            0.06630299240350723,
            -0.049483608454465866,
            -6.2127688454612225e-40,
            0.22969463467597961,
            -0.09300443530082703,
            -0.00024306013074237853,
            -0.012867644429206848,
            -0.09409273415803909,
            -0.06512031704187393,
            0.02279394492506981,
            -1.5881207460211044e-10,
            -0.0694463923573494,
            -0.05446970462799072,
            -0.0022217240184545517,
            -4.955299655514705e-40,
            0.026427552103996277,
            -0.05001382529735565,
            -4.95881691466016e-40,
            3.192051285024356e-15,
            -0.11801110953092575,
            4.943668878260809e-40,
            0.05001772940158844,
            1.7257810736026613e-09,
            0.11078708618879318,
            0.014472284354269505,
            -1.606938229237344e-37,
            -1.0943089324063323e-24,
            0.05769713968038559,
            0.07214102894067764,
            -0.08424181491136551,
            -0.03132171928882599,
            -0.14647990465164185,
            -0.00015533881378360093,
            8.58274579513818e-05,
            -0.007288687396794558,
            0.07529975473880768,
            -0.09930681437253952,
            -4.978042729590696e-40,
            -0.01890432834625244,
            -0.15308347344398499,
            0.07081884145736694,
            0.025097616016864777,
            2.149655742300638e-08,
            -4.971568730685516e-40,
            -0.15908139944076538,
            -0.011980811133980751,
            5.363152473711582e-18,
            -0.0380106121301651,
            -0.05205315351486206,
            0.0038657730910927057,
            0.09716540575027466,
            4.942744021274354e-40,
            0.03060983307659626,
            -0.03204084932804108,
            -0.06285439431667328,
            0.03287820145487785,
            -0.0227950606495142,
            -0.00917024165391922,
            -0.03065803460776806,
            0.1668945848941803,
            0.2124222368001938,
            0.027805553749203682,
            -6.987828909424415e-36,
            -0.0015161277260631323,
            -0.0036185276694595814,
            -7.068737701974208e-15,
            0.09953761100769043,
            -0.07101072371006012,
            -0.03743188455700874,
            -0.041801705956459045,
            0.04994406923651695,
            -0.014741836115717888,
            2.7427646067252447e-23,
            0.0009327533189207315,
            0.153803750872612,
            -0.1021798700094223,
            4.91166322133563e-40,
            0.05931125953793526,
            0.015265282243490219,
            0.055119577795267105,
            -1.0630371027886554e-09,
            0.12586618959903717,
            0.0468265563249588,
            -0.032339371740818024,
            0.18786762654781342,
            -5.767436193498796e-40,
            -0.06039842963218689,
            4.9298240494332794e-40,
            0.04835469275712967,
            -0.10519330948591232,
            0.011976405046880245,
            -0.1081443652510643,
            0.10084764659404755,
            -0.02059117704629898,
            -0.18682961165905,
            -0.13812971115112305,
            4.04124668022027e-39,
            -0.12011914700269699,
            -0.07799738645553589,
            -0.09803206473588943,
            4.937545203971709e-40,
            0.008821360766887665
          ],
          [
            -9.29407002568042e-40,
            -5.683106051915728e-40,
            1.997775677627008e-28,
            3.712936463013608e-40,
            3.2740792112548264e-39,
            -4.607329220853566e-41,
            -7.201853506248851e-37,
            5.367799884458001e-40,
            5.597893092300136e-40,
            -4.951978578154255e-40,
            1.7399320473181594e-39,
            5.209859534543951e-40,
            5.022632046725512e-40,
            3.659724956427802e-39,
            1.62937240107986e-39,
            5.034192759056192e-40,
            1.3734574664356116e-39,
            -1.8781659369284096e-39,
            5.821960716745674e-40,
            4.249067650270426e-39,
            4.9652909135653406e-40,
            6.575621069813491e-40,
            5.971199003196267e-40,
            4.060919678277254e-31,
            5.852593101175815e-40,
            -5.0716634799922374e-40,
            -3.9072278963907085e-39,
            -2.1266876208748803e-39,
            5.700215906165134e-40,
            9.164828268315742e-40,
            2.0521704921777866e-38,
            -4.949918669411697e-40,
            -4.982120508121882e-40,
            1.558905305204358e-39,
            -1.7430905740567475e-39,
            -4.919230233042984e-40,
            -6.1360337415547955e-40,
            1.583017447879995e-39,
            5.916001856686513e-40,
            2.272128388487153e-39,
            -6.0502602625534734e-40,
            -5.813931276545093e-40,
            2.9722689493070116e-39,
            4.915026337650009e-40,
            5.858632697557055e-40,
            -5.832610585074543e-40,
            5.737756692024396e-40,
            7.674112948982358e-40,
            4.9101217930248725e-40,
            -4.907080975357288e-40,
            1.4437465974061444e-39,
            5.182926578059628e-40,
            -4.929866088387209e-40,
            5.103949396610281e-40,
            -7.688840595842412e-40,
            -6.736686315302985e-40,
            5.382345362517693e-40,
            -2.5507415556565348e-40,
            5.796527149618179e-40,
            5.67181158629327e-40,
            -6.163345048624486e-40,
            -1.167054610431352e-39,
            1.3071003789559742e-39,
            -6.15727742627396e-40,
            -4.4508322083577705e-40,
            -5.001724673637786e-40,
            6.1053172792167955e-40,
            -2.892179136876991e-39,
            -5.310696972036765e-40,
            -5.2452423207681525e-40,
            1.244661321982589e-40,
            1.8398600421076264e-39,
            -6.032603901902981e-40,
            -5.6568176927249945e-40,
            -5.2918775336608824e-40,
            -5.9304492438537016e-40,
            -1.0431125638587506e-40,
            -4.906772689695136e-40,
            -3.3711723792509643e-39,
            -1.5627602772797155e-39,
            -1.2916328465067569e-40,
            -2.633720845519993e-39,
            5.319034697899497e-40,
            6.574516846623603e-39,
            -1.73145279031053e-39,
            -5.709184216336813e-40,
            1.919681342434276e-34,
            -8.521996610791375e-41,
            -4.916819999684345e-40,
            -1.4312428112089741e-39,
            5.055254274974994e-40,
            -6.246890463067532e-40,
            8.311003101017987e-40,
            -1.9342150729044737e-39,
            3.171993216830299e-40,
            -1.1924363295156674e-39,
            5.052816015647069e-40,
            5.363371781310735e-40,
            5.523652299660207e-40,
            -1.3305833386211295e-39,
            2.3759071514565846e-39,
            -1.9241075070812987e-39,
            6.228701609000596e-40,
            -2.2731401259783955e-39,
            -1.614138885474185e-39,
            -5.4217498753345065e-40,
            5.248157021573948e-40,
            8.727784296769796e-39,
            3.888435082685648e-40,
            8.515648728747984e-40,
            -1.2686921893472953e-39,
            -5.835707454680701e-40,
            -4.304844934344411e-40,
            6.25098225458336e-40,
            5.115135962250986e-39,
            1.5235841761125866e-39,
            1.1889751223087851e-39,
            2.1273532376454345e-39,
            -1.410953410744015e-39,
            -6.329244773815901e-41,
            1.389175831309943e-39,
            -5.418582940805132e-40,
            5.559959942870863e-40,
            9.371463739865079e-40,
            1.050812754972154e-37,
            -2.9017191768221144e-39,
            -5.496032706928365e-40,
            -2.4458179318417498e-39
          ],
          [
            0.0970487967133522,
            1.1036123396479525e-05,
            0.08857427537441254,
            -0.0947972759604454,
            0.060471311211586,
            -0.05645980313420296,
            -0.08902031928300858,
            1.2432820538807953e-15,
            0.022005032747983932,
            0.017675282433629036,
            0.07172537595033646,
            0.03316643461585045,
            -4.966145705628579e-40,
            0.12579350173473358,
            0.11068511009216309,
            0.0432085320353508,
            0.07607291638851166,
            0.16216756403446198,
            -4.928282621122522e-40,
            0.015552929602563381,
            -4.968752120772223e-40,
            -0.005851977504789829,
            0.00031006024801172316,
            -0.08281566947698593,
            -0.004807221703231335,
            -0.04642428830265999,
            -0.08985412865877151,
            -0.027128659188747406,
            -4.912630117276014e-40,
            -0.1680447906255722,
            0.11270114779472351,
            -0.0009196597966365516,
            -0.19391372799873352,
            0.027833078056573868,
            0.13494974374771118,
            -0.014107712544500828,
            -2.7176591643751635e-08,
            0.04875379055738449,
            -0.02431114949285984,
            -0.08937714248895645,
            -4.914563909156782e-40,
            0.0049045393243432045,
            -0.046135734766721725,
            -4.909911598255224e-40,
            9.497534052618772e-13,
            0.05820149555802345,
            -3.5641493004354326e-23,
            -0.15170049667358398,
            1.0305403853456784e-16,
            -0.09316670149564743,
            0.03323093429207802,
            -6.776029119314603e-14,
            3.3963467036775385e-25,
            0.0788927972316742,
            -0.06523454934358597,
            0.08448293060064316,
            0.004169752821326256,
            0.03821614757180214,
            0.008737138472497463,
            8.744113072500781e-11,
            0.10499411821365356,
            -0.03548285737633705,
            -0.10992848128080368,
            -4.930917062235453e-40,
            -0.0577695332467556,
            0.13745258748531342,
            -0.07811752706766129,
            -0.02219369262456894,
            -3.8121566348081615e-08,
            -5.040638731992086e-40,
            -0.024629319086670876,
            0.10528525710105896,
            2.586325609415074e-33,
            0.05846321955323219,
            -0.02025882713496685,
            -0.01235202793031931,
            -0.09011644870042801,
            5.248283138435737e-40,
            -0.006736575160175562,
            -0.053783122450113297,
            0.11803151667118073,
            0.005996622145175934,
            -0.06603919714689255,
            -0.10078982263803482,
            0.1916971057653427,
            -0.01865282841026783,
            -0.05633337423205376,
            0.07196439057588577,
            2.300802755388674e-36,
            -0.048903632909059525,
            0.021945344284176826,
            -6.378283453701075e-15,
            -0.10379088670015335,
            -0.020999453961849213,
            0.042232487350702286,
            0.06239953637123108,
            0.03792864829301834,
            0.003459784435108304,
            -3.830283746425467e-12,
            0.09558313339948654,
            -0.21982325613498688,
            0.10125330835580826,
            -4.943556774383663e-40,
            -0.015605641528964043,
            -0.07566074281930923,
            -0.05376298725605011,
            1.9794156003172247e-07,
            0.03912675008177757,
            -0.01773103140294552,
            0.06814470142126083,
            -0.04246443137526512,
            -4.962166017989896e-40,
            0.0077706072479486465,
            -4.926718309249077e-27,
            -0.0487491674721241,
            0.024604259058833122,
            -0.06828368455171585,
            0.133438840508461,
            0.0006177639006637037,
            -0.0008964831358753145,
            0.03527623787522316,
            0.22855350375175476,
            -7.731950523630696e-14,
            0.1390950232744217,
            -0.13760560750961304,
            0.22273530066013336,
            -4.9511097731063734e-40,
            -0.029024602845311165
          ],
          [
            -4.950745435505649e-40,
            -4.930875023281523e-40,
            -8.73955414370914e-21,
            -4.934406295411622e-40,
            -4.942687969335781e-40,
            -2.899387701420466e-22,
            -1.9555051565590092e-29,
            5.12995749610815e-40,
            4.956294577424375e-40,
            -4.916637830883983e-40,
            5.4757839441188714e-40,
            4.952104695016044e-40,
            -4.9606526156484254e-40,
            -4.938259866188515e-40,
            -4.6352528174534245e-32,
            -4.931869945191194e-40,
            -4.916876051622918e-40,
            4.915264558388945e-40,
            -5.1694040478788934e-40,
            -6.00393408738159e-20,
            -5.0718316358079564e-40,
            2.3479557312483904e-38,
            -4.919202207073697e-40,
            -1.5191677628309262e-20,
            -4.936914619662763e-40,
            4.930917062235453e-40,
            4.2727411865267295e-40,
            -4.933341308578735e-40,
            5.0564734046389564e-40,
            -5.887932713438275e-30,
            -4.934868723904849e-40,
            5.0633677930834345e-40,
            -1.4248665435921696e-30,
            4.92477937496171e-40,
            -4.932696711285145e-40,
            4.943907098999744e-40,
            -6.053132924405339e-40,
            4.924611219145991e-40,
            4.916357571191118e-40,
            -7.702867593470303e-40,
            5.610532804448346e-40,
            -4.973124171980916e-40,
            -2.3182467758703587e-32,
            -4.991719402602507e-40,
            -4.947928825592356e-40,
            4.918935960365476e-40,
            -5.281227665332014e-40,
            -4.9127702471224464e-40,
            -4.905721715846893e-40,
            4.9121396628135e-40,
            4.962320160820972e-40,
            4.9259284397024565e-40,
            -4.9796962617786e-40,
            -4.9473262672526964e-40,
            4.9422535668118406e-40,
            -5.5103960161876944e-40,
            -4.923027751881304e-40,
            -4.938077697388153e-40,
            5.012220399135579e-40,
            4.959503550907679e-40,
            -4.919104116181195e-40,
            -4.947886786638426e-40,
            7.214024624190591e-41,
            4.926573036996046e-40,
            4.929964179279712e-40,
            -4.951950552184968e-40,
            -4.937208892340271e-40,
            5.1214656274143414e-40,
            -4.924092738714191e-40,
            4.955285642530061e-40,
            4.909000754253413e-40,
            -4.9506053056592165e-40,
            5.1100030059761644e-40,
            -4.962502329621334e-40,
            -4.952763305294277e-40,
            -4.945742799988009e-40,
            -9.440825950133367e-32,
            5.243196425010238e-40,
            -5.370786318228563e-24,
            -4.924457076314915e-40,
            -4.923602284251677e-40,
            4.9048669237836545e-40,
            -4.9289832703546846e-40,
            -7.158983503850438e-19,
            -1.8356018287539656e-21,
            -3.9204503429998676e-27,
            -4.48678532379189e-19,
            -4.907641494743018e-40,
            5.177727760756983e-40,
            -4.374155244858243e-32,
            -6.02341138397701e-40,
            -4.964001718978162e-40,
            1.756514863125784e-35,
            -4.926685140873192e-40,
            4.9429822420132895e-40,
            4.917198350269713e-40,
            -4.925059634654575e-40,
            5.248731553944321e-40,
            -4.995685077256546e-40,
            -4.946387397281599e-40,
            -4.932206256822632e-40,
            -2.4617310772026224e-40,
            4.928674984692533e-40,
            -4.917044207438637e-40,
            -4.9545009153900395e-40,
            -4.914563909156782e-40,
            -5.013873931323482e-40,
            -1.9246147797072366e-18,
            2.563360123219853e-34,
            -4.954823214036834e-40,
            -2.8239835458121595e-39,
            -5.218099169514181e-40,
            4.931113244020458e-40,
            -5.887008991459632e-40,
            -2.275759153590591e-16,
            -4.911509078504554e-40,
            -4.918851882457616e-40,
            -4.928717023646463e-40,
            -1.1393803053774912e-21,
            -4.931757841314048e-40,
            -4.948363228116297e-40,
            -4.9249755567467156e-40,
            -5.155335011297072e-40,
            -4.937755398741358e-40,
            -1.515369074162035e-17,
            -4.943332566629371e-40,
            -6.2128248973997955e-40,
            -4.9060019755397576e-40
          ],
          [
            5.252206774135847e-40,
            -5.072055843562248e-40,
            -4.960834784448788e-40,
            -5.0079744647886745e-40,
            -5.565298890019941e-40,
            -4.927806179644652e-40,
            4.942659943366495e-40,
            -6.192337913851367e-40,
            -6.104182227460692e-40,
            -4.916511714022194e-40,
            -5.194823602021746e-40,
            -5.131737145157842e-40,
            -5.453979740013977e-40,
            -4.9760108468174254e-40,
            5.047743315206213e-40,
            4.9960634278419136e-40,
            -5.079076348868516e-40,
            -4.913498922323895e-40,
            -5.0618403777573205e-40,
            -4.950927604306011e-40,
            4.9786733138996426e-40,
            5.098932748107998e-40,
            -5.490567642917498e-40,
            -3.771468699868456e-40,
            -5.282656989765625e-40,
            -4.942267579796484e-40,
            -4.997674921075887e-40,
            -4.958382512136219e-40,
            5.607043571272177e-40,
            5.013972022215985e-40,
            4.914367727371777e-40,
            6.1074052139286395e-40,
            4.951362006829952e-40,
            -5.096690670565079e-40,
            5.060228884523347e-40,
            4.934406295411622e-40,
            -6.178969526501708e-40,
            5.004835556228587e-40,
            -4.911481052535268e-40,
            5.045991692125807e-40,
            5.864854462738657e-40,
            -5.083420374107923e-40,
            -4.994732194300805e-40,
            -5.0040228031192785e-40,
            -5.983824702359834e-40,
            -5.7873626576614945e-40,
            6.098577033603393e-40,
            4.926769218781051e-40,
            -6.000135816484575e-40,
            5.065105403179197e-40,
            -5.990270675295728e-40,
            6.258353084505709e-40,
            -6.172411449688668e-40,
            -4.984586793419093e-40,
            4.988244182410981e-40,
            -5.436645678010279e-40,
            -5.267508953366274e-40,
            -5.80179603184404e-40,
            -5.599924975073407e-40,
            5.344384187119133e-40,
            -5.149393505808335e-40,
            5.13591301458153e-40,
            4.962025888143464e-40,
            -5.873388370386395e-40,
            -4.988033987641332e-40,
            -5.0958919304404135e-40,
            4.92538193330137e-40,
            -5.079678907208175e-40,
            -5.4595288819327035e-40,
            -6.283590469848199e-40,
            5.605053727452836e-40,
            5.153863647909531e-40,
            5.150654674426227e-40,
            5.84575476466991e-40,
            -5.004667400412868e-40,
            5.231145258217045e-40,
            4.9905282989078305e-40,
            -5.525375896771327e-40,
            -4.932360399653707e-40,
            -5.039685849036345e-40,
            -5.378856129341524e-40,
            5.066744922382457e-40,
            -5.029218149507839e-40,
            4.961157083095582e-40,
            -4.947536462022345e-40,
            -5.03672910927662e-40,
            5.056319261807881e-40,
            4.962081940082037e-40,
            -4.926783231765695e-40,
            4.949582357780259e-40,
            5.42500088777174e-40,
            -6.212726806507293e-40,
            4.924106751698834e-40,
            -4.972283392902321e-40,
            -4.926404881180327e-40,
            -4.978687326884286e-40,
            -4.927203621304992e-40,
            -5.171505995575381e-40,
            5.234858699147506e-40,
            -5.0373316676162794e-40,
            -5.150402440702649e-40,
            5.02292631940302e-40,
            -5.610070375955119e-40,
            -4.968780146741509e-40,
            4.924036686775618e-40,
            5.363722105926816e-40,
            -5.75524489685917e-40,
            4.9296558936175605e-40,
            -4.968836198680082e-40,
            5.028727695045325e-40,
            5.097741644413322e-40,
            4.935387204336649e-40,
            4.98953337699816e-40,
            -4.914087467678912e-40,
            -5.041437472116751e-40,
            -4.9990481935709254e-40,
            -4.93409800974947e-40,
            5.032497187914359e-40,
            -5.010258581285524e-40,
            4.9099536372091535e-40,
            -5.272427510976054e-40,
            5.329292202658355e-40,
            5.100221942695177e-40,
            5.0600887546769144e-40,
            -4.559082514726863e-40,
            5.034809330380495e-40,
            -5.897490703972782e-40,
            5.181525279595303e-40
          ],
          [
            -4.953954408988953e-40,
            4.98785181884097e-40,
            4.909855546316651e-40,
            -5.364801105744346e-40,
            -4.945952994757658e-40,
            4.9122657796752895e-40,
            -4.952623175447844e-40,
            4.997997219722682e-40,
            4.993681220452561e-40,
            -4.932682698300502e-40,
            4.922411180557001e-40,
            -5.008408867312615e-40,
            -4.964001718978162e-40,
            -4.910598234502743e-40,
            -4.925129699577791e-40,
            -4.928366699030382e-40,
            4.940459904777505e-40,
            -4.94561668312622e-40,
            4.965080718795692e-40,
            4.912966428907452e-40,
            4.959055135399095e-40,
            -4.913751156047474e-40,
            -5.029624526062493e-40,
            4.906576507910131e-40,
            4.911425000596695e-40,
            4.929641880632917e-40,
            -4.926082582533532e-40,
            -4.9097294294548616e-40,
            -5.315419347861539e-40,
            -4.9144658182642795e-40,
            -4.926699153857835e-40,
            4.911845390135992e-40,
            -4.940305761946429e-40,
            -4.953534019449655e-40,
            4.906086053447617e-40,
            -4.918543596795465e-40,
            -4.990794545616052e-40,
            4.937138827417055e-40,
            4.929235504078263e-40,
            -4.930917062235453e-40,
            5.038172446694874e-40,
            -4.920435349722303e-40,
            5.45355935047468e-40,
            5.104579980919227e-40,
            5.001430400960278e-40,
            4.953520006465012e-40,
            -5.478908839694316e-40,
            4.9509416172906544e-40,
            -5.213895274121206e-40,
            -4.942127449950051e-40,
            4.950633331628503e-40,
            4.9624602906674044e-40,
            5.204898937980241e-40,
            4.91222374072136e-40,
            -4.941314696840743e-40,
            -4.925017595700645e-40,
            4.911186779857759e-40,
            4.9300482571875714e-40,
            -4.935933710737736e-40,
            6.17319617682869e-40,
            4.931715802360118e-40,
            4.950395110889568e-40,
            -4.931561659529042e-40,
            5.3533665102754554e-40,
            4.927427829059284e-40,
            -4.926292777303181e-40,
            -4.9104020527177375e-40,
            -4.929852075402566e-40,
            5.813202601343644e-40,
            -5.101777383990578e-40,
            4.941721073395397e-40,
            4.920827713292314e-40,
            -6.0250929421342e-40,
            4.954024473912169e-40,
            4.918683726641897e-40,
            4.9312954128208205e-40,
            -4.9377834247106444e-40,
            -4.9083701699444665e-40,
            -4.9489797994406e-40,
            -4.924891478838856e-40,
            4.968682055849007e-40,
            -4.931547646544399e-40,
            4.941482852656462e-40,
            4.90553954704653e-40,
            -4.93690060667812e-40,
            4.9200009471983625e-40,
            4.920547453599449e-40,
            4.9063943391097685e-40,
            5.56378548767847e-40,
            -4.933677620210173e-40,
            -4.957009239641181e-40,
            -4.932164217868702e-40,
            -4.949680448672762e-40,
            4.9504371498434975e-40,
            -4.948825656609524e-40,
            4.928969257370041e-40,
            -4.91597922060575e-40,
            -5.0061667897696955e-40,
            -5.017195008683932e-40,
            4.910696325395246e-40,
            -4.9313514647593935e-40,
            -4.91602125955968e-40,
            5.0270601498727785e-40,
            4.919202207073697e-40,
            4.949063877348459e-40,
            -4.909238974992348e-40,
            5.134049287623978e-40,
            4.930370555834366e-40,
            -4.90946318274664e-40,
            4.947760669776637e-40,
            -4.935555360152368e-40,
            5.584048263472607e-40,
            4.943823021091884e-40,
            4.910752377333819e-40,
            4.942071398011478e-40,
            4.905175209445806e-40,
            -5.4212454078873495e-40,
            -4.941482852656462e-40,
            6.144665740095036e-40,
            -4.953113629910358e-40,
            -4.930650815527231e-40,
            4.907837676528023e-40,
            5.085914685374421e-40,
            -4.941146541025024e-40,
            4.9483492151316535e-40,
            -4.907277157142293e-40,
            5.0785018164981425e-40,
            4.936704424893114e-40
          ],
          [
            -7.960053849367706e-22,
            5.907930377532002e-40,
            -0.0018676212057471275,
            -7.380521128652617e-05,
            -0.0005052148480899632,
            -0.002296813763678074,
            -0.001155190635472536,
            -5.220747623611755e-40,
            6.245556426929495e-39,
            -0.00015320401871576905,
            -3.679405722323281e-07,
            1.54146939199823e-23,
            4.958144291397284e-40,
            -3.963055496569723e-05,
            -5.970243000774644e-05,
            -1.6606961361631534e-09,
            -6.206751663739851e-07,
            -2.1531138827413088e-07,
            5.144923363707139e-40,
            -0.002205286407843232,
            5.270157407463848e-40,
            -7.877226380514912e-06,
            -4.955229590591488e-40,
            -0.002627001143991947,
            1.3434266022553363e-30,
            -2.0697001057445874e-10,
            -0.0013153128093108535,
            -6.60540463286452e-05,
            5.541238595387484e-40,
            -0.0009043161990121007,
            -0.00016943205264396966,
            -5.958040810616257e-40,
            -0.0013229239266365767,
            -1.812481826846124e-07,
            -5.804695888400602e-07,
            -6.545238753790819e-19,
            -5.359994652011712e-40,
            -9.780904974832083e-07,
            -7.049975465633906e-07,
            -0.001230168854817748,
            -5.006643231247566e-40,
            6.004704049478274e-41,
            -0.0008124782470986247,
            4.932290334730491e-40,
            -4.950465175812784e-40,
            -5.0045226446802146e-15,
            5.437528496042804e-40,
            -0.00043523425119929016,
            -6.014022684266034e-40,
            -7.342774915741757e-05,
            -8.572674769493846e-15,
            -5.0787820761910075e-40,
            4.91882385648833e-40,
            -2.116662471962627e-07,
            -2.2520285710925236e-05,
            4.726579720167608e-42,
            -2.0129656459876105e-26,
            -5.540566672124214e-09,
            -6.238188399604075e-40,
            -5.478880813725029e-40,
            -4.102554740370579e-09,
            -3.2884870506677544e-06,
            -0.0004504518583416939,
            -4.932528555469426e-40,
            -3.0247163067542715e-06,
            -1.2554519912555406e-07,
            -5.5313789744104724e-06,
            -0.00047417631139978766,
            -4.959433485984463e-40,
            -4.94237968367363e-40,
            -1.7687220577045082e-07,
            -7.934763601724626e-08,
            5.464615595358203e-40,
            3.694903153076212e-39,
            -4.407277174323099e-06,
            -2.098912623565985e-12,
            -0.0012423997977748513,
            -5.107312512924661e-40,
            -0.0006915732519701123,
            -0.00013925340317655355,
            -1.6035251603509898e-19,
            -0.00016355821571778506,
            -1.0096031246575876e-06,
            -0.0014692473923787475,
            -0.0007289077620953321,
            -0.002010128227993846,
            -0.003150918520987034,
            -0.00013838640006724745,
            -4.950731422521006e-40,
            -0.0002553054364398122,
            -6.778220801785573e-41,
            -4.942491787550776e-40,
            -0.0006756008951924741,
            -2.5615092454245314e-05,
            -2.2552655471194366e-18,
            -1.379218874525412e-11,
            -5.3679552365792915e-05,
            -8.151549348762466e-40,
            6.044599016757601e-40,
            -2.7117139325127937e-05,
            -0.0005984166054986417,
            -0.0005250511458143592,
            4.995306726671178e-40,
            -1.8510381005754084e-09,
            -2.9423008527373895e-06,
            -1.0749989440284047e-11,
            -5.985450208578451e-40,
            -0.001241527497768402,
            -0.0007373313419520855,
            -1.2606084795821482e-12,
            -0.00020265764032956213,
            4.93297697097801e-40,
            -2.74580844096634e-16,
            6.121586354387607e-40,
            -0.0018723225221037865,
            -0.00016237283125519753,
            -5.6988585129147395e-05,
            -0.00011877418000949547,
            -0.0016946772811934352,
            -5.005989400785893e-09,
            -1.0968179822157254e-06,
            -9.063675920906178e-10,
            5.0811502705957164e-40,
            -3.839010605588555e-05,
            -0.0055530318059027195,
            -0.0002233694976894185,
            -4.91054218256417e-40,
            -1.3342059901333414e-05
          ],
          [
            4.9175767008550805e-40,
            -5.060158819600131e-40,
            -1.4406261558754492e-19,
            4.921738557294125e-40,
            -4.909519234685213e-40,
            -1.2018211325153075e-21,
            -3.4328244774182036e-29,
            5.976397820498912e-40,
            5.022688098664085e-40,
            -4.9118173641667055e-40,
            -4.917072233407924e-40,
            -4.977636353036042e-40,
            5.391173542842939e-40,
            -4.9432064497675815e-40,
            2.0851321149153278e-41,
            4.926923361612127e-40,
            4.933243217686232e-40,
            4.955173538652915e-40,
            -5.2687841349688094e-40,
            -9.33565813629507e-22,
            6.28838291059619e-40,
            -4.9237284011134665e-40,
            -4.928843140508252e-40,
            -8.51563001878947e-19,
            -4.9812657160586435e-40,
            4.953351850649293e-40,
            -4.915068376603939e-40,
            -4.951810422338536e-40,
            -5.122418510370082e-40,
            -4.9523569287396225e-40,
            -4.8587922302766545e-40,
            -5.236876568936133e-40,
            -5.123427445264396e-39,
            4.921374219693401e-40,
            -4.904726793937222e-40,
            4.905301326307595e-40,
            -5.4327640812640995e-40,
            4.915404688235377e-40,
            -4.9157690258361015e-40,
            -4.90942114379271e-40,
            5.36253100223214e-40,
            4.93021641300329e-40,
            -3.745043892609601e-32,
            5.22374640232541e-40,
            6.1642699056109406e-40,
            4.921374219693401e-40,
            -6.141372688703873e-40,
            4.932948945008724e-40,
            5.751573494882639e-40,
            -4.908454247852326e-40,
            4.919818778398e-40,
            -5.250959618502598e-40,
            6.104322357307125e-40,
            -4.930034244202928e-40,
            4.919230233042984e-40,
            -4.933173152763016e-40,
            -4.93353749036374e-40,
            4.940628060593224e-40,
            -5.89338489947231e-40,
            6.266844953199517e-40,
            -4.916119350452183e-40,
            4.9193002979662e-40,
            -4.935877658799163e-40,
            6.215753611190234e-40,
            -4.955832148931148e-40,
            4.936326074307747e-40,
            -4.915530805097166e-40,
            -4.925998504625673e-40,
            -5.1933522386342045e-40,
            -5.105729045659974e-40,
            4.9471020594984044e-40,
            -4.9480129035002156e-40,
            -5.321122632611341e-40,
            5.6817187664360465e-40,
            -4.931603698482972e-40,
            -4.911214805827046e-40,
            -2.3208445295994053e-39,
            -4.973936925090225e-40,
            -3.011792666340883e-26,
            -4.920729622399811e-40,
            -4.963721459285297e-40,
            -4.948825656609524e-40,
            -4.961997862174177e-40,
            -2.683727236028204e-20,
            -1.1287744625706646e-24,
            -4.405513767605997e-37,
            -1.0957510355534225e-19,
            -4.949330124056681e-40,
            -5.1022117865145184e-40,
            -7.737594347805447e-37,
            5.037583901339858e-40,
            5.6095518955233185e-40,
            9.033148251623139e-40,
            -4.950409123874211e-40,
            4.9541646037586015e-40,
            -4.946065098634804e-40,
            -4.919818778398e-40,
            5.01968931995043e-40,
            5.499704108904896e-40,
            -4.939549060775694e-40,
            -4.927820192629295e-40,
            4.925213777485651e-40,
            -5.638502721796269e-40,
            4.90830010502125e-40,
            4.916651843868626e-40,
            -4.9644361215021024e-40,
            5.06964561020361e-40,
            -3.1639128315625e-23,
            2.3898061883381155e-34,
            4.922565323388077e-40,
            -4.9258163358253105e-40,
            6.300307960527594e-40,
            -5.942906787201549e-40,
            -5.167946697475996e-40,
            -3.2808091435062807e-22,
            -4.950731422521006e-40,
            -4.9187818175344e-40,
            -4.848198413886359e-40,
            -1.6491608074998056e-25,
            4.951726344430676e-40,
            -4.940964372224662e-40,
            -4.939170710190326e-40,
            5.467250036471133e-40,
            -4.9500447862734866e-40,
            -5.616338578089409e-20,
            -2.1037308207571096e-37,
            -5.452031935148566e-40,
            4.9521327209853305e-40
          ],
          [
            -4.947074033529118e-40,
            5.3065631415670065e-40,
            -6.964465778953999e-19,
            -4.9289832703546846e-40,
            -2.2807122479013337e-25,
            -9.548155922269378e-27,
            -7.118511676936331e-23,
            -5.224993557958659e-40,
            -5.828224520881206e-40,
            -4.94186120324183e-40,
            4.908356156959823e-40,
            4.936970671601336e-40,
            -6.162378152684102e-40,
            -4.907389261019439e-40,
            4.92253729741879e-40,
            4.917016181469351e-40,
            4.9615634596502366e-40,
            -5.212199702979373e-40,
            5.4614486608288285e-40,
            -6.6402072565204556e-18,
            -5.176060215584436e-40,
            -6.0762403360820555e-40,
            5.165102061593416e-40,
            -1.2097924879015478e-19,
            -4.940291748961786e-40,
            4.950409123874211e-40,
            -4.061766900968599e-25,
            -4.914325688417847e-40,
            -5.6823913896989225e-40,
            -2.6340560168028116e-30,
            1.0969840820212538e-39,
            4.9307348934350906e-40,
            -5.078458811001191e-22,
            4.929964179279712e-40,
            -4.9307909453736636e-40,
            -4.9116492083509866e-40,
            5.137398390953715e-40,
            -4.936143905507384e-40,
            -4.906254209263336e-40,
            -5.506035982110024e-20,
            -6.196555822228984e-40,
            -4.92857689380003e-40,
            -2.374025223873343e-24,
            4.999146284463428e-40,
            5.7760121401004635e-40,
            -4.9596997326926845e-40,
            5.436925937703144e-40,
            9.018406591778441e-40,
            5.053502651894588e-40,
            -3.3733598061537754e-40,
            -4.941244631917527e-40,
            -5.551762346854563e-40,
            5.1977523158121845e-40,
            4.930566737619372e-40,
            -5.734435614663946e-40,
            4.934406295411622e-40,
            -4.908678455606618e-40,
            4.911467039550624e-40,
            -4.97301206810377e-40,
            5.018288021486105e-40,
            4.911803351182062e-40,
            -4.92042133673766e-40,
            -2.172607527946841e-30,
            -6.01133219121453e-40,
            4.907585442804445e-40,
            5.885873939703529e-40,
            4.943837034076528e-40,
            4.1131485779248204e-35,
            -5.2488576708061106e-40,
            -4.934980827781995e-40,
            4.914157532602128e-40,
            -4.912896363984236e-40,
            -4.913372805462106e-40,
            5.004429179673933e-40,
            4.95605635668544e-40,
            -4.935387204336649e-40,
            -2.5594963389189006e-26,
            -5.0409470176542374e-40,
            1.6679804943222656e-36,
            -4.9430943458904355e-40,
            -4.972942003180554e-40,
            -4.906926832526212e-40,
            -4.9621800309745395e-40,
            -2.4140271770857427e-24,
            3.759403520090619e-40,
            -1.4959809309115407e-24,
            -6.141810878327402e-19,
            -4.945532605218361e-40,
            5.299991051769323e-40,
            -1.0166470132798e-36,
            4.982386754830103e-40,
            5.329418319520144e-40,
            5.027004162685405e-33,
            4.9157690258361015e-40,
            -4.915572844051096e-40,
            4.953001526033212e-40,
            4.921388232678044e-40,
            4.915194493465728e-40,
            -4.934504386304124e-40,
            4.908524312775542e-40,
            -1.0511128570512738e-36,
            -8.928192332416321e-28,
            4.999090232524855e-40,
            -4.9459810207269446e-40,
            5.222120896106793e-40,
            -4.917366506085432e-40,
            -4.971176367115505e-40,
            -5.743646925019505e-21,
            3.359002658123534e-35,
            -4.961044979218436e-40,
            -4.933341308578735e-40,
            5.882931212928447e-40,
            -5.257924071870292e-40,
            -5.690056492298779e-40,
            -3.6307425702092973e-19,
            1.3988055543567832e-39,
            3.47783283964476e-36,
            -4.918571622764751e-40,
            -2.91497613291789e-36,
            4.9568691097947484e-40,
            4.9214723105859035e-40,
            4.9051471834765194e-40,
            -4.956953187702608e-40,
            -4.919734700490141e-40,
            -1.852619281399702e-14,
            -4.807883057067734e-40,
            5.386479192987451e-40,
            -4.920827713292314e-40
          ],
          [
            5.016620476313559e-40,
            5.010721009778751e-40,
            4.9236723491748935e-40,
            -4.930580750604015e-40,
            4.90830010502125e-40,
            4.929333594970766e-40,
            4.92262137532665e-40,
            -6.232176829192121e-40,
            -4.913583000231755e-40,
            4.9430943458904355e-40,
            4.955523863268997e-40,
            4.939072619297823e-40,
            5.405046397639755e-40,
            4.944131306754036e-40,
            4.919454440797276e-40,
            4.912027558936354e-40,
            -4.968597977941147e-40,
            -4.98513329982018e-40,
            -5.304489219839806e-40,
            4.9451262286637065e-40,
            -5.6823353377603495e-40,
            4.948082968423432e-40,
            6.094443203133635e-40,
            4.949750513595978e-40,
            -4.927890257552511e-40,
            -5.0268079161492e-40,
            4.905007053630087e-40,
            -4.931757841314048e-40,
            -5.832218221504532e-40,
            -4.961759641435242e-40,
            -5.73708406876152e-40,
            4.924092738714191e-40,
            4.934546425258054e-40,
            -4.96597754981286e-40,
            -4.912588078322084e-40,
            -4.991509207832858e-40,
            -4.958578693921225e-40,
            4.951488123691741e-40,
            -5.166447308119168e-40,
            -4.923209920681666e-40,
            6.029212759619315e-40,
            5.127869561396306e-40,
            -4.9402777359771426e-40,
            4.9428561251515e-40,
            -5.462667790492791e-40,
            4.904712780952579e-40,
            4.940487930746791e-40,
            4.960722680571642e-40,
            5.261973824432191e-40,
            4.921878687140558e-40,
            -4.933859789010535e-40,
            -6.140868221256716e-40,
            -5.473457788668092e-40,
            -4.9701954581904774e-40,
            -4.90894470231484e-40,
            5.263234993050083e-40,
            5.049144613670538e-40,
            5.018736436994689e-40,
            -5.115608199833464e-40,
            5.6441079156535685e-40,
            -4.920197128983368e-40,
            -4.9275679589057165e-40,
            -4.958074226474068e-40,
            -6.119021978197892e-40,
            4.949428214949184e-40,
            -5.001248232159915e-40,
            -4.909014767238056e-40,
            -4.917828934578659e-40,
            5.577728407398502e-40,
            5.445095507750158e-40,
            -4.914914233772863e-40,
            -4.978925547623221e-40,
            5.401248878801434e-40,
            -5.024719981437356e-40,
            4.969102445388304e-40,
            5.020446021121165e-40,
            4.906086053447617e-40,
            5.288738625100795e-40,
            4.908468260836969e-40,
            -4.958102252443354e-40,
            -4.9805930927957676e-40,
            4.983900157171574e-40,
            4.995741129195119e-40,
            -4.9066185468640605e-40,
            -4.920631531507309e-40,
            4.954346772558964e-40,
            4.95501939582184e-40,
            -4.9254239722552995e-40,
            4.977300041404604e-40,
            4.953141655879644e-40,
            -5.301378337249005e-40,
            -5.3355279808246005e-40,
            -4.920617518522665e-40,
            -4.9314635686365395e-40,
            4.972381483794824e-40,
            5.0007437647127584e-40,
            4.9377834247106444e-40,
            -4.9538282921271636e-40,
            6.195911224935395e-40,
            4.912293805644576e-40,
            -5.297328584687106e-40,
            4.928310647091809e-40,
            5.132353716482145e-40,
            -5.013369463876325e-40,
            -4.9337757111026754e-40,
            4.981966365290806e-40,
            -5.6172870630463915e-40,
            4.9135689872471116e-40,
            4.9273998030899975e-40,
            4.970321575052267e-40,
            -4.917562687870437e-40,
            -5.206524444198858e-40,
            -4.95005879925813e-40,
            -5.8451241803609635e-40,
            4.928731036631106e-40,
            -4.950955630275298e-40,
            4.9158811297132475e-40,
            4.949091903317746e-40,
            -4.907333209080866e-40,
            4.91442377931035e-40,
            4.9604284078941335e-40,
            -4.957513707088338e-40,
            -4.931491594605826e-40,
            4.99880997283199e-40,
            -4.956855096810105e-40,
            -4.928885179462182e-40,
            5.753689455563769e-40,
            4.930692854481161e-40
          ],
          [
            1.495491689238884e-26,
            -4.979219820300729e-40,
            6.038607586247987e-26,
            3.028720203882487e-26,
            -5.527097849351039e-26,
            2.224496232532296e-26,
            -4.0835101261877862e-25,
            5.291947598584099e-40,
            2.727719617324919e-28,
            5.069090754457959e-26,
            4.7333395353930434e-26,
            -8.742701975019503e-26,
            -4.9560283307161535e-40,
            4.716126343922088e-26,
            -2.7082154474441976e-25,
            -4.992701285441366e-26,
            -1.5353963413890053e-25,
            8.614634104842365e-26,
            5.179213137129167e-40,
            -2.5649553488276673e-25,
            5.13919205298805e-40,
            -8.976505556185038e-26,
            5.0679360260771334e-40,
            1.1419058658508768e-25,
            -1.1633350258221727e-25,
            -6.295813835502551e-26,
            -3.7584057560042344e-25,
            3.3578098623813605e-25,
            -4.933411373501951e-40,
            -9.245168161195191e-26,
            1.1064561824034747e-25,
            4.977664379005329e-40,
            -3.819781106582692e-25,
            -2.270861532236661e-26,
            4.5770190433037224e-26,
            -3.943902006746682e-27,
            -5.06636657179709e-40,
            6.261188619553182e-27,
            -3.512917419199146e-25,
            -3.1908163903931903e-25,
            6.20775219695894e-40,
            -6.220665589816517e-26,
            -1.240368525812169e-25,
            5.142569182287073e-40,
            5.468202919426874e-40,
            -7.759935361509674e-26,
            6.072330713366589e-40,
            -2.848632442054505e-25,
            5.121956081876855e-40,
            -3.4118366654788934e-26,
            -9.246437734214531e-26,
            5.93566207414099e-40,
            4.918151233225454e-40,
            -3.1893754866459975e-25,
            -4.269016006579956e-26,
            2.673364866876456e-26,
            -2.3544855644963503e-26,
            -2.204212461617526e-25,
            -5.571170330585462e-40,
            -4.96533295251927e-40,
            -2.778656843605666e-26,
            -8.11818914604481e-26,
            -2.6138136955115636e-25,
            5.083994906478296e-40,
            1.536740486415792e-25,
            -7.750479507705919e-26,
            1.1180753639802816e-25,
            1.2379732236291752e-25,
            5.144699155952847e-40,
            -4.948110994392718e-40,
            -5.387624776117635e-26,
            -2.257453423667991e-25,
            4.924723323023137e-40,
            -1.342208927932246e-26,
            1.1249272372397083e-25,
            -3.910082137662858e-26,
            -2.896252277117204e-26,
            5.33833057775325e-40,
            1.0318677198113561e-25,
            6.127311913552179e-26,
            2.291063150683723e-26,
            8.024306070157358e-26,
            -5.951309033728802e-26,
            1.681923864897106e-26,
            1.0541316548577472e-25,
            -1.6466596253921892e-25,
            9.748400405265559e-26,
            -2.0210254008783987e-25,
            -5.003069920163538e-40,
            -1.198280824366365e-25,
            4.9405594284990037e-26,
            -5.456123726664394e-40,
            -2.227610322585414e-25,
            7.903146279579144e-26,
            1.6479954504016162e-26,
            -1.1290913134836272e-25,
            2.8915721132779476e-26,
            -5.57305392746082e-26,
            4.956112408624013e-40,
            -1.9786385485861928e-25,
            -6.060844912646266e-27,
            -1.405983863961894e-26,
            -5.6180998161557e-40,
            -7.085552348480621e-26,
            -2.2888096585743945e-25,
            -1.1665390336925344e-25,
            5.912176311878906e-40,
            -1.6949455548817344e-25,
            -8.335284899756796e-26,
            -6.494025614998228e-26,
            -3.4447438748806715e-26,
            4.9824568197533196e-40,
            -1.0641259062293152e-25,
            5.313709763735063e-40,
            5.464192355135485e-26,
            -1.9429078334413058e-25,
            -1.7875630020543717e-25,
            -2.587263349151186e-25,
            1.4216899305104487e-25,
            -8.085456348858795e-26,
            8.563496812958995e-26,
            -2.0639257523160968e-26,
            -5.03228699314471e-40,
            1.1314956136113212e-25,
            1.323384303173102e-25,
            -3.5888100291049663e-25,
            -4.973208249888776e-40,
            3.0224835804993745e-26
          ],
          [
            0.025848856195807457,
            1.1018792545058886e-09,
            0.014925339259207249,
            0.01879432238638401,
            -0.20026619732379913,
            0.039934758096933365,
            0.07503455877304077,
            -8.734360724282114e-29,
            -0.04670945182442665,
            0.011922985315322876,
            0.0118150869384408,
            -0.022982971742749214,
            5.0954435149318296e-40,
            -0.1128634437918663,
            0.03277481347322464,
            0.009159528650343418,
            -0.08270078152418137,
            0.04292871057987213,
            -4.909238974992348e-40,
            0.0620475634932518,
            -5.1107456941622566e-40,
            -0.011127711273729801,
            4.64000294186917e-07,
            0.2142418473958969,
            -0.012225574813783169,
            0.023846609517931938,
            -0.05874710530042648,
            0.0034367407206445932,
            -4.9293756339246955e-40,
            0.16307476162910461,
            -0.017057597637176514,
            -3.2882230698305648e-06,
            -0.003093638690188527,
            0.0075087836012244225,
            -0.007419172674417496,
            0.04884014651179314,
            -2.289701157083719e-15,
            -0.047644246369600296,
            -0.0966234803199768,
            -0.11547964066267014,
            5.7794593343227025e-40,
            -0.021054327487945557,
            0.02589143067598343,
            -5.12551537997624e-40,
            -4.9385757934288996e-14,
            -0.030588775873184204,
            4.916777960730415e-40,
            0.05707011744379997,
            -6.301096305833106e-15,
            0.007873560301959515,
            -0.016523471102118492,
            -5.877746408610445e-40,
            -4.648202153605373e-25,
            -0.044406525790691376,
            -0.010459584183990955,
            -0.006595446728169918,
            -0.009445763193070889,
            0.058723267167806625,
            0.0020533327478915453,
            -4.370645033420479e-23,
            0.08102287352085114,
            -0.034758344292640686,
            -0.030429227277636528,
            -5.01421024295492e-40,
            -0.003431200049817562,
            0.011938546784222126,
            0.055542852729558945,
            -0.011457012966275215,
            -4.950254981043135e-40,
            4.990500272938544e-40,
            -0.020032094791531563,
            0.04447765275835991,
            4.957485681119051e-40,
            -0.03281779587268829,
            -0.014449396170675755,
            0.003301074728369713,
            0.00358892185613513,
            5.138617520617677e-40,
            0.19041860103607178,
            0.04259348660707474,
            -0.04931527003645897,
            0.008233151398599148,
            -0.006772525142878294,
            0.12796801328659058,
            0.06238066032528877,
            -0.07460024952888489,
            0.21879273653030396,
            -0.11787785589694977,
            -2.6362894457837984e-35,
            0.12762466073036194,
            -0.001599278417415917,
            -1.0169281900124314e-14,
            0.06988770514726639,
            -0.004999116994440556,
            -0.0029360547196120024,
            0.04860502853989601,
            0.04082870110869408,
            -0.0083678113296628,
            4.577043152865138e-24,
            -0.09716135263442993,
            0.05551736429333687,
            -0.1925812065601349,
            4.908468260836969e-40,
            -0.001470424933359027,
            0.058598004281520844,
            0.043122295290231705,
            1.6837985172823977e-10,
            0.1059747263789177,
            0.029452253133058548,
            0.00010491348075447604,
            0.11559125036001205,
            -5.172823216131846e-40,
            -0.018154703080654144,
            4.9232239336663096e-40,
            0.07540731877088547,
            -0.1183587983250618,
            -0.05445661023259163,
            -0.06077984347939491,
            0.0473465695977211,
            0.0729755088686943,
            -0.0770939439535141,
            -0.08363955467939377,
            -6.303306739241249e-40,
            -0.0732831135392189,
            -0.09099956601858139,
            -0.06509913504123688,
            4.951123786091017e-40,
            0.08955316245555878
          ],
          [
            -1.962304147705493e-32,
            5.9020449239818375e-40,
            -2.0123275125974994e-19,
            2.2474120373027846e-33,
            -4.5118643710619156e-26,
            2.1386477511868394e-27,
            -1.989703428145335e-30,
            4.9117052602895596e-40,
            -1.6124970123047442e-32,
            -1.3109352801217718e-31,
            -1.482547698738714e-31,
            -2.2333449331406928e-32,
            -6.202203055040213e-40,
            -6.928895027193134e-32,
            2.9635634197710394e-33,
            5.135780075275081e-32,
            8.332482301848978e-32,
            -3.0767368567271414e-32,
            -5.56482244854207e-40,
            -7.594424519080202e-23,
            4.922747492188439e-40,
            -4.9101142534023844e-32,
            -6.830825682454641e-34,
            -8.256430492304141e-18,
            -1.4492320141718613e-32,
            7.830495667790776e-32,
            1.5939813536268913e-28,
            8.585771947092411e-32,
            -5.341427447359408e-40,
            -3.5393390826243594e-26,
            7.41214211416642e-22,
            5.551327944330622e-40,
            1.133475247307229e-31,
            7.292937986929516e-32,
            -1.9106063175793516e-31,
            -8.510067759910754e-32,
            5.551818398793136e-40,
            6.715539276035837e-32,
            -2.034081596008228e-32,
            6.879949793413596e-31,
            -4.956490759209381e-40,
            8.28125719677602e-32,
            -5.968502157009737e-28,
            -5.251253891180106e-40,
            4.920687583445882e-40,
            4.869032195209084e-32,
            4.994550025500443e-40,
            -6.261682670424878e-32,
            -6.013644333680666e-40,
            1.1628695414944561e-31,
            5.583455343842241e-32,
            -5.223031740108604e-40,
            5.677122507473061e-40,
            -3.3246251054285454e-32,
            5.072263413522749e-32,
            -1.121990770355451e-32,
            -1.0085012723557717e-32,
            -9.590921885053988e-32,
            5.769622219103142e-40,
            -5.328955891026917e-40,
            5.552313559753081e-32,
            1.0187733297404323e-31,
            2.4367416022842363e-32,
            5.451093065177468e-40,
            -2.8758886593361806e-32,
            -1.3387642860314439e-31,
            3.532798689740243e-32,
            -1.0747905414589014e-24,
            -5.971367159011986e-40,
            4.94017964508464e-40,
            8.466581815770022e-33,
            9.117035443452193e-32,
            -5.732894186353189e-40,
            -3.7938474793198656e-32,
            -5.283930567045091e-32,
            -1.306413858650769e-32,
            -1.1913866817970996e-31,
            5.042292264179989e-40,
            3.4554799620742166e-21,
            2.9166130733732433e-32,
            6.186773117424377e-32,
            -1.7609236864724799e-31,
            4.8367187371257424e-32,
            -8.513227253626894e-30,
            -1.7928175694774222e-14,
            -8.982237086384642e-30,
            -8.892399213896243e-15,
            -1.0829115929054786e-31,
            -5.291345040244439e-40,
            -2.7795061883407906e-28,
            -2.384414618194176e-33,
            2.1814793437129363e-37,
            2.2390350898700007e-31,
            -1.2066531795795339e-31,
            4.078261276237195e-32,
            2.1937007984120357e-32,
            1.30014671051936e-31,
            -7.362391482900676e-33,
            -4.912896363984236e-40,
            1.9483735404780507e-31,
            8.276737420997108e-32,
            -3.3882992246491695e-31,
            -4.926404881180327e-40,
            6.540037969458069e-32,
            -2.8741351156383414e-32,
            3.350812180828989e-32,
            5.845938099350594e-36,
            -1.8749764632577583e-26,
            -1.78459720230256e-31,
            7.022456736805308e-32,
            4.0808808653980026e-32,
            -6.052376223234604e-40,
            1.4842966249478063e-33,
            -4.955103473729699e-40,
            -4.899893550227247e-24,
            -2.320119044497631e-31,
            1.5107903023357229e-32,
            1.3227018610240678e-31,
            -1.6894465472598827e-27,
            7.282637717680436e-32,
            -5.375743141063241e-32,
            9.924195692410421e-32,
            5.024061371159123e-40,
            -2.9626948668610713e-28,
            -2.4302232101702792e-11,
            7.53552666040956e-30,
            4.905245274369022e-40,
            -1.6978354042489468e-32
          ],
          [
            -3.601681924030693e-15,
            4.9893371952131544e-40,
            -1.3814769403571684e-14,
            1.2178058651020514e-14,
            -1.6060974571780948e-14,
            2.9823820008652996e-14,
            -1.1578246668982484e-14,
            5.43319848378804e-40,
            -3.453951331216544e-15,
            -2.784700858712028e-15,
            -1.2004416049800435e-14,
            -1.4230389624306293e-15,
            4.92210289489485e-40,
            -3.240483623096732e-16,
            -2.0381960686268255e-14,
            -3.280255578679025e-15,
            2.1305002982077367e-14,
            7.366785302706947e-15,
            -5.007427958387588e-40,
            -3.7849341987406665e-14,
            5.0153172687417365e-40,
            -1.631994303694269e-14,
            -1.9950370548041186e-21,
            -3.913721556140007e-16,
            5.45892236308073e-15,
            5.651184124909998e-16,
            -8.023979531756719e-15,
            -1.1431419436806582e-14,
            -5.905057715680136e-40,
            4.258912151980723e-15,
            -2.0456082845416584e-15,
            1.1367964968742567e-20,
            1.254365331764852e-14,
            -1.9507530881851488e-15,
            -1.0693458498653744e-15,
            4.9800590626140895e-15,
            6.0938546577786185e-40,
            -7.219211834504514e-15,
            5.4537567326519e-15,
            -1.631637025197117e-14,
            -5.944125916865512e-40,
            3.734124419179849e-15,
            7.928489272448005e-15,
            5.360681288259231e-40,
            7.847277759827085e-33,
            1.0998093898133754e-15,
            5.000827842620618e-40,
            1.7665666631892958e-14,
            1.728245736978307e-32,
            9.724432054687617e-15,
            5.149193330972407e-15,
            4.956883122779392e-40,
            -4.940361813885002e-40,
            4.271405040919777e-15,
            1.2045615732354884e-14,
            5.052410499386184e-15,
            1.3828312613365333e-15,
            -4.555234770116379e-15,
            -3.820804501751492e-22,
            -8.69878160003289e-35,
            -3.607926674434325e-15,
            2.0809081708602446e-15,
            5.349035084767535e-15,
            -6.2049776259995765e-40,
            4.002324272917241e-15,
            2.3747542764163652e-14,
            -1.5185831989139066e-14,
            -7.284309704632796e-15,
            5.792855747641648e-40,
            4.923364063512742e-40,
            -3.344502815970027e-15,
            9.355331518690925e-15,
            4.971652808593375e-40,
            8.900714536339439e-15,
            1.1819581602248285e-14,
            1.3873788753512232e-15,
            -1.3110054932115051e-14,
            4.980340859072189e-40,
            -1.5675076525407255e-14,
            9.851295567329683e-15,
            1.3771115019536092e-14,
            -1.6546890268566428e-14,
            -1.6248389505206908e-15,
            2.2757193959816293e-15,
            -2.6729139396080258e-14,
            -2.4384164256990512e-14,
            -1.0742247172899119e-14,
            1.8319269441246372e-14,
            5.455885505925459e-40,
            -1.8660552568222286e-14,
            3.2897683939514012e-15,
            3.482148824037374e-26,
            -2.1936276308875263e-14,
            -2.5261679802434127e-15,
            -2.582060084542698e-15,
            1.5935072018017542e-15,
            -3.0959522207848035e-15,
            -3.3300477752086586e-15,
            -1.092885739154845e-35,
            -1.6240067830016608e-14,
            1.4812661459830817e-14,
            -2.912980186925429e-14,
            -5.453180999889312e-40,
            -3.722292639456127e-15,
            -4.280348861809835e-15,
            -7.719390719088809e-15,
            -2.68432222411403e-31,
            1.156423928513374e-14,
            -2.045453277512311e-14,
            1.523783049473806e-15,
            8.035918461148268e-15,
            -5.147081363342199e-40,
            9.95152328191239e-15,
            6.182206525954298e-40,
            1.958389301962883e-14,
            2.016181174107918e-14,
            -5.548441040111301e-15,
            2.537726973006471e-14,
            -9.847344158630741e-15,
            -2.923722258762508e-15,
            -2.583036078256172e-15,
            -1.69406301459658e-14,
